 {"nn":{"inputNames":["Up","Down","Left","Right","Wall Up","Wall Down","Wall Left","Wall Right","Apple Up","Apple Down","Apple Left","Apple Right"],"inputs":12,"hidden":[16,16],"outputNames":["Up","Down","Left","Right"],"outputs":4,"weights":[{"rows":16,"cols":12,"data":[0.09873795250095951,-0.10215967081077748,0.13578625035895642,0.1840595560871061,0.24306321892559302,-0.26481245725411595,-0.21965441931214913,0.13390744333569238,0.25885328370050176,-0.21060546832624394,0.30815354181830834,0.010812262594011468,0.17868980628157494,0.009793702173582108,-0.00705242201498435,-0.003941158948923662,0.30712077100757074,-0.14164089139121794,-0.15652591428560103,0.14120910558630162,-0.07533364471968274,-0.0333031817999313,-0.21435028827549818,-0.06554466215130494,-0.10216324060580362,0.045371645942373195,-0.22372317657538043,-0.2793352185135376,-0.3589236780850227,0.3079678701577433,-0.013937167942063677,0.043752214346995055,0.5531501698929557,0.38191333653023807,-0.07316295756233315,0.20642342794858992,0.0723387726208129,0.1274699627381728,0.01530658037583743,-0.9154098212726707,-0.010982789593317555,-0.046939050697110796,0.34511376891445833,0.664453935061351,0.6426412271186797,0.0530539306177118,-0.9966898429528648,0.028589636067163138,0.2749346690122061,-0.027863150689481753,0.06198603862756191,0.2818314713559267,0.4083836513994077,0.3526189936945556,-0.6853062871055089,-0.19835676591714224,-0.1950546691384012,0.2953235954099327,0.6904128932335087,-0.059041638392311135,-0.05446961753597668,0.0831434495056913,0.2748138438293508,-0.3076781772507913,0.8485030236893585,-0.3270111193032661,-0.3405348910188365,0.1572844750627005,-0.2962336324540318,-0.22545507881394422,-0.05038058625514741,-0.06076558971719692,-0.8055647830377368,0.11938896479587502,0.03133496802641078,-0.31874243542314973,0.275560399264021,-0.3030781160990488,-0.23323653236957842,0.3148799250899632,-0.06733320747609794,-0.021236434668848836,0.028247714630267318,0.778114859623813,-0.16029704251874377,-0.0894733574237363,-0.3546413301570138,-0.217309695697103,-0.1389880047941745,-0.6522286541393156,0.15121387165870415,0.9847003894190585,-0.4152221893817577,-0.4440164256747723,0.18634726469887086,0.6948940828528998,-0.2731329170281189,-0.21859143533019476,-0.07774910639436428,0.18771459493144294,-0.07744037219806865,0.9811889293965317,0.15386898598351295,0.011279766456518514,0.923925843894227,-0.5964348331550133,-0.01725903332439449,0.07970041411939843,0.0805681286832125,0.1641606255276269,-0.0012277978649271049,-0.07776693668458146,-0.2439255956624623,0.6879711375845958,0.21018527738564985,0.24481491761557006,-0.11638752709289835,-0.08699794691843277,-0.08155251896486981,-0.14762378241534235,0.2463993619353495,-0.14895403428092013,0.21917536026890105,0.01080737457614589,0.11204578505278384,-0.4116014745911869,0.017883446600595487,0.03258582760246731,-0.17242443136233465,-0.056397456767371845,0.4052234773252048,-0.09605724669013604,-0.049782975565104914,0.05587822390601982,-0.1450071003888147,-0.02828436577936888,0.12384070590148366,0.0035900695074664313,-0.24887582507343864,0.2807551406694233,0.23831225641703035,0.8143006232925285,0.8750799199953692,0.3450595625453672,-0.3808369455768301,-0.8464479587939446,0.25276144138933465,0.21181019745825447,0.9675391937000213,0.15320398717464556,0.8807339956705795,-0.4852562520916661,0.12207016493673195,-0.07556983707301024,-0.5041136967901569,0.058169019336359096,0.39459786001676944,0.061972754253898144,-0.20076750171174762,-0.1246123527547428,-0.8865646515087908,0.160898790077467,-0.6211385822385451,0.15647989747626045,0.8257891083735109,0.22636213626191792,-0.2817684283301949,0.04438241308119317,-0.3218476949810134,-0.03530563603654269,0.03271920960130714,-0.8964501148983288,-0.5461160757480419,-0.09420665659017136,0.39344939852646243,-0.3550400085581744,0.3068473181839573,0.11219091625732758,0.0626893183118431,0.1684720148764609,0.6000143448069544,-0.08762646010627695,-0.3340433514120432,0.057990005645313536,0.5095783711200892,-0.11107696385913046,-0.6752519675657318,0.011218316961177921,-0.2222420777367401,0.11683490875691205,-0.31799917960875745,-0.5571518529246284]},{"rows":16,"cols":16,"data":[-0.023117242958871964,-0.02797331716847995,-0.36411635973757894,0.01448865196081095,0.43926213165549477,0.4240840819517051,-0.22756127541198856,0.27021304068571395,0.028606105467745335,-0.006553573989478201,-0.09454368865081497,-0.042048609064447406,-0.05026879397855999,0.03394603552153663,-0.22413219496740344,-0.22745130219241472,0.2735595268151694,-0.03008633331161903,-0.21133358987439577,0.20377617270627235,0.1421901414365807,0.08082686758539737,-0.38314121820582747,0.7756557471588015,-0.13961506098215393,-0.011850272783756943,0.904508459408655,-0.31283351500261336,-0.40754484695149185,0.1393678827609779,-0.32004233064469556,0.018399757056338784,-0.15514530528667958,-0.8072646102688834,-0.19547232729608865,0.5458577741211625,0.160873092439084,0.1093871251462899,0.2946916009097067,0.3822081332048852,-0.07268167751827925,-0.08959523605738429,-0.08552417056883299,0.023430524733334623,-0.2869362586532236,0.19748653679241412,-0.12184353099550804,-0.24165831064881016,0.13305575601219322,-0.42929356982376143,-0.12351492416351562,-0.18099077176331047,0.1583257652821446,-0.09577359586775258,-0.33988390824977155,-0.24189584262124852,0.061912025282487404,-0.005736771208036062,0.33988672472442527,-0.7351942296108276,-0.1707147961591644,0.18544176302351256,-0.09065885026843201,0.2120570125091703,-0.0938567764173851,-0.2348634165517014,-0.20438949792175087,-0.8251556425255782,0.17058939807373585,0.019223393428778435,-0.09927462405676024,-0.8787741686306547,-0.29947399470771596,0.1440453051791566,0.005407916602959029,0.22741713763250315,-0.1561715158255601,0.08305081540624659,-0.004306895709831449,-0.0267040439292634,0.04901152613480564,0.2785610299655681,0.9524738543755982,-0.133714740418707,0.23205129910902067,-0.11085213639099045,-0.029803616064678407,-0.2520788317453322,0.26657733800077565,0.08242309697716044,-0.7366395075097696,-0.09357036757948356,0.04050145013459039,0.05575794205554052,-0.08005012879908191,-0.3672834829241416,0.08061715374850009,0.15204816568962864,-0.2748503344977977,-0.3081795269601747,0.019093108085445287,0.037907785738420685,0.9961607631831946,-0.16149549715139566,-0.015288404480622075,0.4300805237830341,-0.7200293993095181,-0.11087566293104012,0.07056257704617686,0.030335735266388664,-0.004114108451318099,-0.34653716839687654,-0.7810573204917608,-0.06842822523545822,0.14565778520150618,-0.808024908711868,0.10235574705754358,-0.12632080244550992,-0.20389971334991897,0.02668692987672361,-0.4627319662506645,0.3088681274741356,-0.44803884933043836,-0.2609816209484802,-0.020065683102663767,-0.39895160116968686,-0.08123906403724113,0.10575029501808975,0.14623174920336157,0.4800551190162947,-0.25807869647236514,0.612317842000019,-0.011693130514183858,-0.002432349214647078,-0.7428673573829725,0.033318311708496084,-0.042267972099563456,0.08187021536699368,-0.16987400095180583,0.09825825801460186,-0.48071295524740754,-0.05344299276239539,-0.4968713553002768,-0.0050385553712904985,-0.05898226131873252,-0.04323356547317714,0.9888408707145615,0.09233890567108238,0.30707224303244507,-0.047184681790077065,-0.42315634400567137,-0.015808418511794042,0.2513748833152638,0.13688197829132953,0.03601819237116177,-0.1308136626393015,0.5493631787279871,0.0847546108713666,0.19570242281918904,-0.4162398698177513,-0.321776308559663,-0.010740769448242982,0.08433117968526838,-0.24748935592554955,0.4442936533657227,0.1596014110235766,0.29266672339018296,-0.6887276219063883,0.028034222111759988,-0.5560738185966243,0.2210495184907133,0.09778739102139311,0.7940912305370937,-0.0002963710682131193,-0.656400622727535,0.1406508534059323,-0.2958777565555478,0.7987783591101598,-0.01658879443460959,0.18026458480474217,0.17518604309102237,0.08858344726756662,-0.3181391320443462,0.11485994808257494,-0.04246412786438758,-0.03160345863623104,0.011473388019731301,0.06528776167825767,0.2650348551330781,0.22625670227302486,0.03955587967044938,0.10232496097744836,-0.09389345075400557,0.010425183213368161,0.021883367157525146,-0.31538050780902305,-0.3959882299020112,-0.03680652816720986,0.20265172065610004,-0.11699399724410808,0.19686909249791196,-0.26468532169706394,0.13194499226066103,0.17628289642382056,0.1838847094140359,-0.29500053950787974,0.0635639868318596,0.13203331320477063,-0.07869391657776137,-0.23670885572562927,-0.39699980286804115,0.3143911497356737,0.23554719284740555,-0.003944120751947278,-0.4543476138416538,0.1373713798154126,-0.44046179568130517,0.055746471473143266,-0.4145786108401258,-0.7037087967059099,0.07958160546338267,0.22877570427963478,0.14817150855229744,0.0853590585009536,0.8133117010957318,0.27374079472317314,0.0895813945467765,-0.5331898849234384,0.37861190254283184,0.08785159640945395,-0.01689310812638256,0.37029649443352497,0.8004310320849939,-0.02702738895418011,0.05253539658921014,-0.07328798760581723,-0.7745612371655972,-0.26342589642029646,-0.04210383238284365,0.016594496370666567,0.0026043752930873243,-0.0876068845527519,-0.05966712473840463,-0.14928491072954753,0.48329903492903137,-0.12911874218155317,-0.7855749634632971,0.045884340089797915,0.008706466362041754,-0.10741062540871271,0.590630378361602,-0.08332914648584722,0.03437147689745723,-0.41240185025779397,-0.8591692536399052,0.05702100592522297]},{"rows":4,"cols":16,"data":[0.10710837949882368,-0.21470315257840245,0.7337072109381784,0.31357367803350655,-0.09207698339133996,0.9393246964370539,-0.24975883261731258,-0.26107285402878433,-0.4995138971842863,0.9260844744719079,-0.5762869405857249,-0.13001841072408926,-0.16584177348322204,0.11664580292017868,-0.9719283794434896,0.019165793600405934,-0.18799156248755677,0.9538045832116615,0.8514654770341479,-0.3798384881886535,-0.5466305269939546,0.22865770397122875,-0.30585256152998674,-0.001674165469762734,0.16514152437988505,-0.5222602445356039,-0.14725383663024638,0.07959270839795063,0.13055963618063293,-0.05372802334553972,0.14074749427100341,0.0232041503363285,-0.40852590999038274,-0.09501968110006054,-0.018197420402503717,0.04878080346738778,0.9198373805875035,0.012029860178779828,-0.5350383995348162,0.035002159699172974,0.27649700357299056,0.11211212356079159,-0.018662725357275423,-0.0045177222392672745,-0.7879107330931414,-0.9590388906207878,0.2736903230596597,0.1048334069552379,-0.022964207213600818,0.1639167413169551,-0.8241286507273391,0.32702826590553036,0.4108660404778506,0.12715377949995954,0.10439999921400189,-0.024331987566779345,-0.17057475125068788,-0.14760074616137164,0.09284272216559275,0.4913472297731545,0.009260492286918165,-0.2602709286317074,-0.9822871678448193,-0.4796442578342406]}],"biases":[{"rows":16,"cols":1,"data":[-0.1652106554612085,0.3481442203508758,0.06250257663048941,-0.06515264897835071,-0.01710206451697338,-0.25767109949869327,-0.43790394285235934,-0.9617099477082167,-0.5437701561778279,0.16202166208566138,0.2849961846011553,-0.0621985799618503,-0.10731039872477,-0.5021449344293796,0.025887961253401537,-0.11018952194848586]},{"rows":16,"cols":1,"data":[-0.9630370939381967,-0.14864954654467488,0.06965625541101383,-0.14597715761052799,-0.2608943226523286,-0.6581985864751978,0.8933905921696979,0.18151099852214303,-0.6199475920115587,0.1940309645846885,-0.032730802927399716,0.05825341743994361,0.551742706372184,0.8240938711358856,-0.13885016568273567,-0.28730953514058366]},{"rows":4,"cols":1,"data":[-0.11127920007432524,-0.22441083424294983,0.9094496605576703,0.4455452743456574]}],"mutationRate":"0.03"},"populationSize":1000,"mutationRate":"0.03","scorePerMove":1,"scorePerApple":800,"scorePerMoveTowardApple":5,"timeToStarve":500}