 {"nn":{"inputNames":["Up","Down","Left","Right","Wall Up","Wall Down","Wall Left","Wall Right","Apple Up","Apple Down","Apple Left","Apple Right"],"inputs":12,"hidden":[16,16],"outputNames":["Up","Down","Left","Right"],"outputs":4,"weights":[{"rows":16,"cols":12,"data":[0.09873795250095951,-0.10215967081077748,-0.5347689527299866,0.1840595560871061,0.24306321892559302,-0.26481245725411595,-0.21965441931214913,0.8037954767871356,0.25885328370050176,0.023026894957331567,0.30815354181830834,-0.010676253329467755,-0.5108251938611132,0.009793702173582108,-0.00705242201498435,-0.15062139995881474,0.08917964858482152,-0.14164089139121794,0.2752616001744783,-0.4882007563790616,-0.07533364471968274,-0.0333031817999313,-0.21435028827549818,-0.06554466215130494,-0.10216324060580362,0.045371645942373195,0.9142909005896511,-0.2793352185135376,-0.3589236780850227,-0.3535647865732492,0.07074724009113664,0.043752214346995055,0.5531501698929557,0.38191333653023807,-0.7980602988024046,-0.08997831362883069,0.0723387726208129,0.1274699627381728,-0.13593807942691405,-0.9154098212726707,0.07968341348537367,-0.046939050697110796,0.34511376891445833,0.664453935061351,0.6426412271186797,-0.7793345195822581,-0.9966898429528648,0.028589636067163138,0.2749346690122061,0.2009662944874009,0.13731247549703096,0.2818314713559267,0.13322120157964368,0.3526189936945556,-0.6853062871055089,-0.19835676591714224,-0.1950546691384012,0.2953235954099327,0.6904128932335087,-0.16140530372845552,-0.05446961753597668,0.0831434495056913,0.2748138438293508,-0.3076781772507913,0.8485030236893585,-0.3270111193032661,-0.3667617718097981,-0.07620943594160212,-0.2962336324540318,-0.22545507881394422,-0.05038058625514741,-0.06076558971719692,-0.8055647830377368,0.1881972691341891,-0.10740214181459873,-0.31874243542314973,0.275560399264021,-0.3030781160990488,-0.010344602713100892,0.3148799250899632,0.7507822552648347,-0.021236434668848836,0.03548237557347611,0.778114859623813,-0.16029704251874377,0.19699504399671985,-0.3546413301570138,-0.217309695697103,-0.1389880047941745,-0.6522286541393156,0.14491731357897386,0.9847003894190585,-0.10064357723232153,-0.4440164256747723,0.18634726469887086,0.6948940828528998,-0.2731329170281189,-0.1601381419747343,-0.07774910639436428,0.18771459493144294,-0.07744037219806865,0.9811889293965317,0.16777597993212456,0.011279766456518514,0.923925843894227,-0.5964348331550133,-0.01725903332439449,0.07970041411939843,0.053176937387328094,0.1641606255276269,-0.0012277978649271049,0.010342695560584758,-0.2439255956624623,0.6879711375845958,-0.36202773969161706,0.24481491761557006,0.5611465112660379,-0.08699794691843277,-0.045997472727329014,0.07604293906597692,0.2463993619353495,-0.14895403428092013,0.08425183644376144,0.01080737457614589,-0.09587969805865593,-0.4116014745911869,0.017883446600595487,-0.2774538484163144,-0.17242443136233465,-0.056397456767371845,0.4052234773252048,-0.09605724669013604,-0.049782975565104914,0.05587822390601982,-0.1450071003888147,-0.02828436577936888,0.24156883029649667,0.0035900695074664313,-0.17071287975740046,0.2807551406694233,0.23831225641703035,0.8143006232925285,0.8750799199953692,0.3450595625453672,-0.3808369455768301,-0.8464479587939446,0.25276144138933465,0.21181019745825447,0.9675391937000213,0.15320398717464556,0.8807339956705795,-0.4852562520916661,0.3195852701812225,-0.35713197047186096,-0.5041136967901569,0.058169019336359096,0.14106756280812105,0.061972754253898144,-0.5210859326993988,-0.2014592317385726,-0.8865646515087908,0.160898790077467,-0.6211385822385451,0.15647989747626045,0.8257891083735109,0.12849278097056827,-0.2817684283301949,0.04438241308119317,0.07042605931386525,-0.03530563603654269,0.03271920960130714,-0.8964501148983288,-0.5461160757480419,-0.09420665659017136,0.050283087321308706,-0.3550400085581744,-0.023793480386597343,0.11219091625732758,-0.26816955314244817,0.1684720148764609,0.6000143448069544,-0.008212125161567996,-0.3340433514120432,0.3445030526964197,0.5095783711200892,-0.11107696385913046,-0.6752519675657318,0.011218316961177921,-0.2222420777367401,0.11624903626476257,0.7257048225842597,-0.5571518529246284]},{"rows":16,"cols":16,"data":[0.041914305840351274,-0.02797331716847995,-0.36411635973757894,-0.10033166732190357,0.43926213165549477,0.1040320901702585,-0.22756127541198856,0.27021304068571395,0.028606105467745335,-0.006553573989478201,-0.16533288753836406,0.15971278366358077,-0.05026879397855999,0.0019455134494359427,-0.6751496408247122,-0.22745130219241472,0.2735595268151694,-0.03008633331161903,-0.21133358987439577,0.3545486427635107,0.031525291730974514,0.08082686758539737,-0.38314121820582747,0.7756557471588015,0.1283923264551694,-0.011850272783756943,0.904508459408655,-0.04831919565616838,-0.40754484695149185,0.258311251244578,0.027272114564725225,0.018399757056338784,-0.15514530528667958,-0.8072646102688834,0.37069579585455203,0.5458577741211625,-0.03168970163691265,-0.06568635005277734,0.2946916009097067,0.3822081332048852,0.03801640426748798,-0.8271479444215002,-0.19135071796180858,0.023430524733334623,-0.3888218321653123,0.19748653679241412,-0.12184353099550804,-0.14488252306967575,0.061746597958076244,-0.42929356982376143,-0.12351492416351562,-0.18099077176331047,0.1583257652821446,-0.09577359586775258,-0.15502792667041154,-0.38571659625751664,0.061912025282487404,0.11764883229145395,0.220154582436777,-0.7351942296108276,0.14345590512708073,0.7420021120936111,-0.09065885026843201,0.2120570125091703,0.10437902658201947,-0.2348634165517014,-0.20438949792175087,-0.8251556425255782,0.17058939807373585,-0.20494187397121266,-0.08245462948859095,-0.8787741686306547,-0.29947399470771596,-0.20839809959423938,0.007868684521094682,0.22741713763250315,-0.001528731478379286,0.42527016749596314,0.09344797612121036,0.653662440795657,-0.11299556998711768,0.2785610299655681,0.9524738543755982,-0.7334683629413363,0.23205129910902067,-0.11085213639099045,0.13369721535838064,-0.2520788317453322,0.26657733800077565,0.08242309697716044,-0.7366395075097696,0.5032859519363955,0.04050145013459039,0.05575794205554052,-0.24091035717562692,-0.3672834829241416,0.25685174836908486,0.1630362979788056,-0.2748503344977977,-0.3081795269601747,0.18251285501214531,0.037907785738420685,0.9961607631831946,-0.16149549715139566,-0.18398893914751802,0.4300805237830341,-0.7200293993095181,-0.029756554642183963,0.012094572556568206,0.0592067344369438,0.1536474320886385,-0.34653716839687654,-0.7810573204917608,-0.06842822523545822,0.14565778520150618,-0.808024908711868,0.10235574705754358,-0.12632080244550992,-0.06592638027817088,-0.3604842556136595,-0.4627319662506645,0.3088681274741356,-0.9573014882298652,-0.2609816209484802,-0.020065683102663767,-0.29450188787261444,-0.08123906403724113,0.10575029501808975,-0.08397789565111591,0.4800551190162947,-0.25807869647236514,0.612317842000019,-0.2327792390117729,-0.2724539717795559,-0.7428673573829725,0.033318311708496084,-0.19109982662666813,0.08187021536699368,-0.16987400095180583,0.09825825801460186,-0.48071295524740754,-0.05344299276239539,-0.4968713553002768,-0.5711127242130773,-0.05898226131873252,0.0268888121663875,0.9888408707145615,-0.07963318733407099,0.30707224303244507,-0.047184681790077065,-0.42315634400567137,0.01913665101892814,0.2513748833152638,0.13688197829132953,-0.13305599826931835,-0.1878904157622392,0.5493631787279871,0.0847546108713666,0.19570242281918904,-0.4162398698177513,-0.321776308559663,0.2964656549531237,-0.1916256851675281,-0.18804243442568525,0.4442936533657227,-0.04973082193876799,0.29266672339018296,-0.6887276219063883,0.028034222111759988,-0.5560738185966243,0.2210495184907133,0.09778739102139311,0.7940912305370937,-0.21589491255896087,-0.656400622727535,0.1406508534059323,0.42652023728211175,0.7987783591101598,-0.01658879443460959,0.23303000888124847,0.17518604309102237,-0.11932153165689507,-0.3200225354176931,0.11485994808257494,-0.10591431704354348,-0.03160345863623104,0.011473388019731301,0.02504258240419932,-0.15643054046917504,0.22625670227302486,0.0192827311626107,0.10232496097744836,-0.06452272569258777,0.12690891067905374,0.021883367157525146,-0.31538050780902305,-0.3959882299020112,-0.03680652816720986,0.20265172065610004,0.23414246215109102,0.01760380450482768,0.03466558308880785,0.13194499226066103,0.17628289642382056,0.02386225578156176,-0.29500053950787974,-0.016761963796450452,0.13203331320477063,-0.07869391657776137,-0.03020217188136598,-0.39699980286804115,0.3143911497356737,0.1080060600424897,-0.003944120751947278,-0.4543476138416538,0.1373713798154126,-0.20739450297156037,0.055746471473143266,-0.4145786108401258,-0.7037087967059099,0.07958160546338267,0.22877570427963478,0.14817150855229744,0.0853590585009536,0.8133117010957318,0.27374079472317314,0.8230482659234015,-0.5331898849234384,0.37861190254283184,-0.16112254682887672,-0.01689310812638256,0.12310812902282597,0.8004310320849939,-0.02702738895418011,0.05253539658921014,-0.033245266826226305,-0.7745612371655972,-0.26342589642029646,-0.04210383238284365,0.016594496370666567,0.0026043752930873243,0.30035397925121354,-0.05966712473840463,-0.14928491072954753,0.48329903492903137,-0.12911874218155317,-0.7855749634632971,0.045884340089797915,0.1404688355693695,-0.10741062540871271,0.590630378361602,-0.08332914648584722,0.03437147689745723,-0.41240185025779397,-0.8591692536399052,0.07345772297035458]},{"rows":4,"cols":16,"data":[0.10710837949882368,-0.21470315257840245,0.7337072109381784,0.31357367803350655,-0.22940648190680246,0.9393246964370539,-0.24975883261731258,0.06019737533991654,-0.4995138971842863,0.9260844744719079,-0.5762869405857249,-0.3961199391696346,-0.16584177348322204,-0.10047016936030628,-0.9719283794434896,0.019165793600405934,-0.18799156248755677,0.9538045832116615,0.8514654770341479,-0.00014879156769886936,-0.5466305269939546,0.22865770397122875,-0.30585256152998674,-0.001674165469762734,0.25132404804697783,-0.5222602445356039,-0.14725383663024638,-0.12883381273173766,0.13055963618063293,-0.05372802334553972,0.14074749427100341,0.0232041503363285,-0.09765544737978793,-0.09501968110006054,-0.018197420402503717,0.04878080346738778,0.9198373805875035,0.012029860178779828,-0.5350383995348162,-0.08754320927057568,0.0925804608448142,0.11211212356079159,-0.018662725357275423,-0.0045177222392672745,-0.7879107330931414,-0.9590388906207878,0.2736903230596597,0.1048334069552379,-0.06230631167417222,-0.42268552685190963,-0.8241286507273391,0.32702826590553036,-0.006497968804177967,0.12715377949995954,0.10439999921400189,-0.024331987566779345,-0.17057475125068788,-0.14760074616137164,0.09284272216559275,0.4913472297731545,0.009260492286918165,-0.16090272747940038,-0.9822871678448193,-0.4796442578342406]}],"biases":[{"rows":16,"cols":1,"data":[0.15931507792735022,0.3481442203508758,0.06250257663048941,-0.06515264897835071,-0.01710206451697338,0.142143549750249,0.1731107264450693,-0.9617099477082167,-0.5437701561778279,0.16202166208566138,-0.05899545503351389,-0.0621985799618503,-0.003916252420458233,-0.5021449344293796,0.8431148875430612,-0.11018952194848586]},{"rows":16,"cols":1,"data":[-0.9630370939381967,-0.14864954654467488,0.06965625541101383,-0.14597715761052799,-0.2608943226523286,-0.6581985864751978,0.8933905921696979,0.18151099852214303,-0.6199475920115587,0.28150819677333194,-0.032730802927399716,0.05825341743994361,0.551742706372184,0.8240938711358856,-0.13885016568273567,0.10013959169684128]},{"rows":4,"cols":1,"data":[-0.11127920007432524,-0.22441083424294983,0.9094496605576703,0.4455452743456574]}],"mutationRate":"0.05"},"populationSize":1000,"mutationRate":"0.05","scorePerMove":1,"scorePerApple":800,"scorePerMoveTowardApple":5,"timeToStarve":300}